\data\
ngram 1=28
ngram 2=24
ngram 3=19

\1-grams:
-99	<s>	-1.579239
-1.247387	</s>
-2.43964	aan	-0.7238833
-2.555499	uit	-0.6814674
-4.006773	muziek	-0.3096635
-3.998877	slaap	-0.3113285
-4.094812	start	-0.4076988
-3.577326	stop	-0.4485492
-3.123546	ja	-0.3875869
-3.188672	nee	-0.4016908
-5.345434	herstarten	-0.2111757
-3.680583	help	-0.5205663
-4.500153	nul	-0.3927988
-2.337899	een	-0.5218744
-3.117335	twee	-0.4322659
-3.334075	drie	-0.4136488
-3.526997	vier	-0.4025888
-3.545883	vijf	-0.4168203
-3.651497	zes	-0.4266312
-3.82148	zeven	-0.359084
-3.763162	acht	-0.3864941
-3.894979	negen	-0.3792304
-3.617683	tien	-0.5257416
-4.244866	afsluiten	-0.545729
-4.612866	televisie	-0.2704634
-2.584044	naar	-0.6652761
-2.21611	de	-0.5432258
-4.157713	speel	-0.3136401

\2-grams:
-2.930645	<s> aan	-0.6561719
-3.24907	<s> uit	-0.3982466
-5.012722	<s> muziek
-4.215964	<s> slaap	-0.4107952
-4.192312	<s> start	-0.2939489
-3.175193	<s> stop	-0.4776039
-1.767939	<s> ja	-0.9463627
-1.876415	<s> nee	-0.9844577
-3.234982	<s> help	-0.8073809
-5.003753	<s> nul	-0.0419232
-1.884123	<s> een	-0.3298177
-2.92024	<s> twee	-0.378486
-3.15442	<s> drie	-0.3335976
-3.523309	<s> vier	-0.2563988
-3.509776	<s> vijf	-0.4095057
-3.679067	<s> zes	-0.2609523
-4.108674	<s> zeven	-0.1523689
-4.044715	<s> acht	-0.1440898
-4.101236	<s> negen	-0.1708768
-3.758189	<s> tien	-0.4000148
-5.702888	<s> afsluiten
-2.997127	<s> naar	-0.4978679
-1.606518	<s> de	-0.4314914
-4.155967	<s> speel	-0.3022812


\3-grams:
-1.739514	<s> aan </s>
-0.9184027	<s> start </s>
-0.6462812	<s> stop </s>
-0.6976773	<s> ja </s>
-0.6683697	<s> nee </s>
-0.684662	<s> help </s>
-0.2766008	<s> nul </s>
-2.056685	<s> een </s>
-1.141376	<s> twee </s>
-0.9583135	<s> drie </s>
-1.116466	<s> vier </s>
-0.9886267	<s> vijf </s>
-1.150527	<s> zes </s>
-0.9711862	<s> zeven </s>
-0.892774	<s> acht </s>
-0.8684166	<s> negen </s>
-1.024413	<s> tien </s>
-1.849499	<s> naar </s>
-2.234212	<s> de </s>

\end\
